<?xml version="1.0"?>
<opencv_storage>
<myhaar type_id="opencv-haar-classifier">
  <size>
    24 24</size>
  <stages>
    <_>
      <trees>
        <_>
          <_>
            <feature>
              <rects>
                <_>
                  0 0 24 8 -1.</_>
                <_>
                  0 4 24 4 2.</_></rects>
              <tilted>0</tilted></feature>
            <threshold>0.1577434986829758</threshold>
            <left_val>-0.8413990139961243</left_val>
            <right_val>0.9204106926918030</right_val></_></_>
        <_>
          <_>
            <feature>
              <rects>
                <_>
                  7 0 10 2 -1.</_>
                <_>
                  7 1 10 1 2.</_></rects>
              <tilted>0</tilted></feature>
            <threshold>8.4051154553890228e-003</threshold>
            <left_val>-0.6535242795944214</left_val>
            <right_val>0.8903074860572815</right_val></_></_>
        <_>
          <_>
            <feature>
              <rects>
                <_>
                  1 21 22 3 -1.</_>
                <_>
                  1 22 22 1 3.</_></rects>
              <tilted>0</tilted></feature>
            <threshold>-8.1130899488925934e-003</threshold>
            <left_val>0.7797688245773315</left_val>
            <right_val>-0.6017321944236755</right_val></_></_></trees>
      <stage_threshold>-0.7151545882225037</stage_threshold>
      <parent>-1</parent>
      <next>-1</next></_>
    <_>
      <trees>
        <_>
          <_>
            <feature>
              <rects>
                <_>
                  4 0 4 4 -1.</_>
                <_>
                  4 0 2 4 2.</_></rects>
              <tilted>1</tilted></feature>
            <threshold>-0.0336806289851666</threshold>
            <left_val>0.7779756188392639</left_val>
            <right_val>-0.7001413702964783</right_val></_></_>
        <_>
          <_>
            <feature>
              <rects>
                <_>
                  10 18 10 4 -1.</_>
                <_>
                  15 18 5 2 2.</_>
                <_>
                  10 20 5 2 2.</_></rects>
              <tilted>0</tilted></feature>
            <threshold>-4.2738378979265690e-003</threshold>
            <left_val>0.6151105761528015</left_val>
            <right_val>-0.5372077226638794</right_val></_></_>
        <_>
          <_>
            <feature>
              <rects>
                <_>
                  4 8 15 2 -1.</_>
                <_>
                  9 8 5 2 3.</_></rects>
              <tilted>0</tilted></feature>
            <threshold>-5.2079469896852970e-003</threshold>
            <left_val>0.5718017220497131</left_val>
            <right_val>-0.8170847296714783</right_val></_></_></trees>
      <stage_threshold>-0.9021155238151550</stage_threshold>
      <parent>0</parent>
      <next>-1</next></_>
    <_>
      <trees>
        <_>
          <_>
            <feature>
              <rects>
                <_>
                  1 0 8 1 -1.</_>
                <_>
                  1 0 4 1 2.</_></rects>
              <tilted>1</tilted></feature>
            <threshold>-0.0216406006366014</threshold>
            <left_val>0.7215399742126465</left_val>
            <right_val>-0.8192396163940430</right_val></_></_>
        <_>
          <_>
            <feature>
              <rects>
                <_>
                  1 3 22 4 -1.</_>
                <_>
                  1 5 22 2 2.</_></rects>
              <tilted>0</tilted></feature>
            <threshold>0.0311625301837921</threshold>
            <left_val>-0.7697855830192566</left_val>
            <right_val>0.4571869075298309</right_val></_></_>
        <_>
          <_>
            <feature>
              <rects>
                <_>
                  0 6 12 7 -1.</_>
                <_>
                  3 6 6 7 2.</_></rects>
              <tilted>0</tilted></feature>
            <threshold>0.0448865406215191</threshold>
            <left_val>-0.5146387219429016</left_val>
            <right_val>0.6849641799926758</right_val></_></_>
        <_>
          <_>
            <feature>
              <rects>
                <_>
                  8 16 14 6 -1.</_>
                <_>
                  15 16 7 3 2.</_>
                <_>
                  8 19 7 3 2.</_></rects>
              <tilted>0</tilted></feature>
            <threshold>-6.3927881419658661e-003</threshold>
            <left_val>0.2853378057479858</left_val>
            <right_val>-0.2970911860466003</right_val></_></_>
        <_>
          <_>
            <feature>
              <rects>
                <_>
                  2 16 14 6 -1.</_>
                <_>
                  2 16 7 3 2.</_>
                <_>
                  9 19 7 3 2.</_></rects>
              <tilted>0</tilted></feature>
            <threshold>-0.0161135904490948</threshold>
            <left_val>0.6180217862129211</left_val>
            <right_val>-0.5757048130035400</right_val></_></_></trees>
      <stage_threshold>-1.7494870424270630</stage_threshold>
      <parent>1</parent>
      <next>-1</next></_>
    <_>
      <trees>
        <_>
          <_>
            <feature>
              <rects>
                <_>
                  0 1 24 2 -1.</_>
                <_>
                  6 1 12 2 2.</_></rects>
              <tilted>0</tilted></feature>
            <threshold>0.0265807304531336</threshold>
            <left_val>-0.7295929789543152</left_val>
            <right_val>0.6723774075508118</right_val></_></_>
        <_>
          <_>
            <feature>
              <rects>
                <_>
                  12 2 12 9 -1.</_>
                <_>
                  15 2 6 9 2.</_></rects>
              <tilted>0</tilted></feature>
            <threshold>0.0210012700408697</threshold>
            <left_val>-0.2198503017425537</left_val>
            <right_val>0.3321323990821838</right_val></_></_>
        <_>
          <_>
            <feature>
              <rects>
                <_>
                  0 2 12 9 -1.</_>
                <_>
                  3 2 6 9 2.</_></rects>
              <tilted>0</tilted></feature>
            <threshold>0.0613919012248516</threshold>
            <left_val>-0.6405271291732788</left_val>
            <right_val>0.7197359800338745</right_val></_></_></trees>
      <stage_threshold>-1.0379879474639893</stage_threshold>
      <parent>2</parent>
      <next>-1</next></_>
    <_>
      <trees>
        <_>
          <_>
            <feature>
              <rects>
                <_>
                  5 0 11 2 -1.</_>
                <_>
                  5 1 11 1 2.</_></rects>
              <tilted>0</tilted></feature>
            <threshold>0.0140995401889086</threshold>
            <left_val>-0.6637256741523743</left_val>
            <right_val>0.6616138219833374</right_val></_></_>
        <_>
          <_>
            <feature>
              <rects>
                <_>
                  0 0 24 12 -1.</_>
                <_>
                  0 6 24 6 2.</_></rects>
              <tilted>0</tilted></feature>
            <threshold>0.2640635967254639</threshold>
            <left_val>-0.6367838978767395</left_val>
            <right_val>0.5001075267791748</right_val></_></_>
        <_>
          <_>
            <feature>
              <rects>
                <_>
                  7 22 10 2 -1.</_>
                <_>
                  7 23 10 1 2.</_></rects>
              <tilted>0</tilted></feature>
            <threshold>2.0076679065823555e-003</threshold>
            <left_val>-0.7545251846313477</left_val>
            <right_val>0.4817363023757935</right_val></_></_>
        <_>
          <_>
            <feature>
              <rects>
                <_>
                  13 7 6 12 -1.</_>
                <_>
                  16 7 3 6 2.</_>
                <_>
                  13 13 3 6 2.</_></rects>
              <tilted>0</tilted></feature>
            <threshold>0.0195600893348455</threshold>
            <left_val>-0.3445951938629150</left_val>
            <right_val>0.5200917720794678</right_val></_></_>
        <_>
          <_>
            <feature>
              <rects>
                <_>
                  4 8 8 10 -1.</_>
                <_>
                  4 8 4 5 2.</_>
                <_>
                  8 13 4 5 2.</_></rects>
              <tilted>0</tilted></feature>
            <threshold>0.0163151007145643</threshold>
            <left_val>-0.6884049773216248</left_val>
            <right_val>0.5046502947807312</right_val></_></_></trees>
      <stage_threshold>-1.0302929878234863</stage_threshold>
      <parent>3</parent>
      <next>-1</next></_>
    <_>
      <trees>
        <_>
          <_>
            <feature>
              <rects>
                <_>
                  3 0 17 4 -1.</_>
                <_>
                  3 2 17 2 2.</_></rects>
              <tilted>0</tilted></feature>
            <threshold>0.0451967902481556</threshold>
            <left_val>-0.7312777042388916</left_val>
            <right_val>0.5828331112861633</right_val></_></_>
        <_>
          <_>
            <feature>
              <rects>
                <_>
                  12 3 12 12 -1.</_>
                <_>
                  15 3 6 12 2.</_></rects>
              <tilted>0</tilted></feature>
            <threshold>-1.4073780039325356e-003</threshold>
            <left_val>0.1532077938318253</left_val>
            <right_val>-0.1132818982005119</right_val></_></_>
        <_>
          <_>
            <feature>
              <rects>
                <_>
                  0 3 12 12 -1.</_>
                <_>
                  3 3 6 12 2.</_></rects>
              <tilted>0</tilted></feature>
            <threshold>0.0842044875025749</threshold>
            <left_val>-0.5276957750320435</left_val>
            <right_val>0.6475018858909607</right_val></_></_>
        <_>
          <_>
            <feature>
              <rects>
                <_>
                  2 2 21 12 -1.</_>
                <_>
                  2 5 21 6 2.</_></rects>
              <tilted>0</tilted></feature>
            <threshold>0.0742622166872025</threshold>
            <left_val>-0.6712613105773926</left_val>
            <right_val>0.4278343021869659</right_val></_></_>
        <_>
          <_>
            <feature>
              <rects>
                <_>
                  12 8 2 2 -1.</_>
                <_>
                  12 8 1 2 2.</_></rects>
              <tilted>1</tilted></feature>
            <threshold>-1.8824629951268435e-003</threshold>
            <left_val>0.5641310811042786</left_val>
            <right_val>-0.5221685767173767</right_val></_></_>
        <_>
          <_>
            <feature>
              <rects>
                <_>
                  9 18 12 4 -1.</_>
                <_>
                  15 18 6 2 2.</_>
                <_>
                  9 20 6 2 2.</_></rects>
              <tilted>0</tilted></feature>
            <threshold>-0.0155495097860694</threshold>
            <left_val>0.3874368965625763</left_val>
            <right_val>-0.2634120881557465</right_val></_></_>
        <_>
          <_>
            <feature>
              <rects>
                <_>
                  0 1 24 7 -1.</_>
                <_>
                  6 1 12 7 2.</_></rects>
              <tilted>0</tilted></feature>
            <threshold>0.0983706936240196</threshold>
            <left_val>-0.3658122122287750</left_val>
            <right_val>0.5638806223869324</right_val></_></_></trees>
      <stage_threshold>-1.4449650049209595</stage_threshold>
      <parent>4</parent>
      <next>-1</next></_>
    <_>
      <trees>
        <_>
          <_>
            <feature>
              <rects>
                <_>
                  3 19 18 4 -1.</_>
                <_>
                  3 19 9 2 2.</_>
                <_>
                  12 21 9 2 2.</_></rects>
              <tilted>0</tilted></feature>
            <threshold>-0.0173936393111944</threshold>
            <left_val>0.6538453102111816</left_val>
            <right_val>-0.5001633763313294</right_val></_></_>
        <_>
          <_>
            <feature>
              <rects>
                <_>
                  2 0 20 10 -1.</_>
                <_>
                  2 5 20 5 2.</_></rects>
              <tilted>0</tilted></feature>
            <threshold>0.1811272948980331</threshold>
            <left_val>-0.7544183731079102</left_val>
            <right_val>0.3827751874923706</right_val></_></_>
        <_>
          <_>
            <feature>
              <rects>
                <_>
                  8 10 8 12 -1.</_>
                <_>
                  8 14 8 4 3.</_></rects>
              <tilted>0</tilted></feature>
            <threshold>0.0111769102513790</threshold>
            <left_val>-0.7534189224243164</left_val>
            <right_val>0.3012836873531342</right_val></_></_>
        <_>
          <_>
            <feature>
              <rects>
                <_>
                  0 2 24 4 -1.</_>
                <_>
                  6 2 12 4 2.</_></rects>
              <tilted>0</tilted></feature>
            <threshold>0.0773862302303314</threshold>
            <left_val>-0.4494132995605469</left_val>
            <right_val>0.5092530846595764</right_val></_></_>
        <_>
          <_>
            <feature>
              <rects>
                <_>
                  2 7 9 9 -1.</_>
                <_>
                  5 7 3 9 3.</_></rects>
              <tilted>0</tilted></feature>
            <threshold>0.0364708602428436</threshold>
            <left_val>-0.4224609136581421</left_val>
            <right_val>0.5646684765815735</right_val></_></_>
        <_>
          <_>
            <feature>
              <rects>
                <_>
                  4 15 16 4 -1.</_>
                <_>
                  8 15 8 4 2.</_></rects>
              <tilted>0</tilted></feature>
            <threshold>0.0131144300103188</threshold>
            <left_val>-0.5300452709197998</left_val>
            <right_val>0.3846276104450226</right_val></_></_>
        <_>
          <_>
            <feature>
              <rects>
                <_>
                  3 6 18 6 -1.</_>
                <_>
                  9 8 6 2 9.</_></rects>
              <tilted>0</tilted></feature>
            <threshold>-3.7129789125174284e-003</threshold>
            <left_val>0.2284325063228607</left_val>
            <right_val>-0.7324709296226502</right_val></_></_></trees>
      <stage_threshold>-1.2121119499206543</stage_threshold>
      <parent>5</parent>
      <next>-1</next></_>
    <_>
      <trees>
        <_>
          <_>
            <feature>
              <rects>
                <_>
                  7 0 7 4 -1.</_>
                <_>
                  7 1 7 2 2.</_></rects>
              <tilted>0</tilted></feature>
            <threshold>0.0114190103486180</threshold>
            <left_val>-0.5907043814659119</left_val>
            <right_val>0.5501254200935364</right_val></_></_>
        <_>
          <_>
            <feature>
              <rects>
                <_>
                  0 21 24 3 -1.</_>
                <_>
                  0 22 24 1 3.</_></rects>
              <tilted>0</tilted></feature>
            <threshold>-3.1512090936303139e-003</threshold>
            <left_val>0.3406727910041809</left_val>
            <right_val>-0.7603927850723267</right_val></_></_>
        <_>
          <_>
            <feature>
              <rects>
                <_>
                  2 0 10 16 -1.</_>
                <_>
                  2 4 10 8 2.</_></rects>
              <tilted>0</tilted></feature>
            <threshold>0.0816925391554832</threshold>
            <left_val>-0.7482705116271973</left_val>
            <right_val>0.3339313864707947</right_val></_></_>
        <_>
          <_>
            <feature>
              <rects>
                <_>
                  10 18 10 4 -1.</_>
                <_>
                  15 18 5 2 2.</_>
                <_>
                  10 20 5 2 2.</_></rects>
              <tilted>0</tilted></feature>
            <threshold>-4.2905299924314022e-003</threshold>
            <left_val>0.1927329003810883</left_val>
            <right_val>-0.4187662005424500</right_val></_></_>
        <_>
          <_>
            <feature>
              <rects>
                <_>
                  6 23 12 1 -1.</_>
                <_>
                  9 23 6 1 2.</_></rects>
              <tilted>0</tilted></feature>
            <threshold>1.3738749548792839e-003</threshold>
            <left_val>-0.5262659788131714</left_val>
            <right_val>0.4426423907279968</right_val></_></_>
        <_>
          <_>
            <feature>
              <rects>
                <_>
                  0 0 24 16 -1.</_>
                <_>
                  0 8 24 8 2.</_></rects>
              <tilted>0</tilted></feature>
            <threshold>0.1540268957614899</threshold>
            <left_val>-0.8115602731704712</left_val>
            <right_val>0.2612827122211456</right_val></_></_>
        <_>
          <_>
            <feature>
              <rects>
                <_>
                  1 11 8 1 -1.</_>
                <_>
                  3 11 4 1 2.</_></rects>
              <tilted>0</tilted></feature>
            <threshold>2.7821380645036697e-003</threshold>
            <left_val>-0.4925113916397095</left_val>
            <right_val>0.4672181010246277</right_val></_></_></trees>
      <stage_threshold>-1.2056549787521362</stage_threshold>
      <parent>6</parent>
      <next>-1</next></_></stages></myhaar>
</opencv_storage>
